<?xml version="1.0"?>
<opencv_storage>
<my_svm type_id="opencv-ml-svm">
  <svm_type>C_SVC</svm_type>
  <kernel><type>RBF</type>
    <gamma>5.0625000000000009e-01</gamma></kernel>
  <C>3.1250000000000000e+02</C>
  <term_criteria><epsilon>2.2204460492503131e-16</epsilon>
    <iterations>100</iterations></term_criteria>
  <var_all>15</var_all>
  <var_count>15</var_count>
  <class_count>4</class_count>
  <class_labels type_id="opencv-matrix">
    <rows>1</rows>
    <cols>4</cols>
    <dt>i</dt>
    <data>
      0 1 2 3</data></class_labels>
  <sv_total>78</sv_total>
  <support_vectors>
    <_>
      8.53658468e-02 7.31707290e-02 8.23170692e-02 4.26829234e-02
      6.40243888e-02 5.48780486e-02 8.53658468e-02 8.23170692e-02
      7.62195066e-02 2.43902430e-02 5.48780486e-02 7.92682916e-02
      8.84146318e-02 4.57317047e-02 6.09756075e-02</_>
    <_>
      5.38461544e-02 8.71794894e-02 8.97435918e-02 6.53846189e-02
      7.56410286e-02 3.84615399e-02 7.82051310e-02 9.10256431e-02
      7.69230798e-02 3.46153863e-02 6.53846189e-02 7.05128238e-02
      6.02564104e-02 4.74358983e-02 6.53846189e-02</_>
    <_>
      6.72897249e-02 1.00934580e-01 5.79439253e-02 6.72897249e-02
      5.98130859e-02 2.61682253e-02 7.66355172e-02 1.27102807e-01
      7.10280389e-02 1.49532715e-02 5.04672900e-02 7.28971958e-02
      5.60747683e-02 8.22429955e-02 6.91588819e-02</_>
    <_>
      5.80762252e-02 1.34301275e-01 5.26315793e-02 6.17059879e-02
      6.35208711e-02 9.25589874e-02 3.62976417e-02 8.52994546e-02
      6.53357506e-02 6.71506375e-02 6.89655170e-02 7.62250423e-02
      2.54083481e-02 1.63339376e-02 9.61887464e-02</_>
    <_>
      1.23456791e-02 6.97530881e-02 7.03703761e-02 8.33333358e-02
      6.48148209e-02 7.28395060e-02 6.48148209e-02 3.14814821e-02
      3.14814821e-02 5.74074090e-02 1.00000001e-01 2.53086425e-02
      1.13580249e-01 1.09259263e-01 9.32098776e-02</_>
    <_>
      6.99300738e-03 1.38461545e-01 7.83216804e-02 1.24475531e-01
      7.48251751e-02 4.33566459e-02 7.13286772e-02 2.30769236e-02
      4.75524478e-02 4.82517518e-02 9.51048955e-02 6.22377656e-02
      3.98601405e-02 2.93706302e-02 1.16783224e-01</_>
    <_>
      1.10144928e-01 6.08695671e-02 7.82608688e-02 2.60869581e-02
      7.24637732e-02 3.47826108e-02 8.40579718e-02 1.01449281e-01
      9.56521779e-02 1.73913054e-02 4.92753647e-02 1.10144928e-01
      4.63768132e-02 7.24637732e-02 4.05797102e-02</_>
    <_>
      8.58034343e-02 4.36817482e-02 5.46021834e-02 5.77223077e-02
      8.58034343e-02 6.24024943e-02 4.99219969e-02 1.40405610e-01
      7.33229294e-02 5.77223077e-02 5.77223077e-02 6.24024943e-02
      5.92823699e-02 6.24024943e-02 4.68018726e-02</_>
    <_>
      9.91957113e-02 1.09919578e-01 9.24933031e-02 7.77479932e-02
      5.63002713e-02 6.30026832e-02 6.56836480e-02 5.22788204e-02
      4.15549614e-02 5.09383380e-02 6.43431693e-02 5.09383380e-02
      5.09383380e-02 3.35120670e-02 9.11528170e-02</_>
    <_>
      9.62800905e-02 8.75273496e-02 7.00218827e-02 7.65864328e-02
      7.00218827e-02 8.97155404e-02 6.56455159e-02 4.37636748e-02
      5.68927787e-02 5.90809621e-02 5.03282286e-02 7.43982494e-02
      3.71991247e-02 4.81400453e-02 7.43982494e-02</_>
    <_>
      5.59440553e-02 8.62470865e-02 8.85780901e-02 6.75990656e-02
      5.12820520e-02 6.75990656e-02 6.75990656e-02 3.03030312e-02
      3.49650346e-02 9.79020968e-02 9.32400972e-02 4.19580415e-02
      5.59440553e-02 9.55711007e-02 6.52680695e-02</_>
    <_>
      9.60451961e-02 7.90960491e-02 7.62711838e-02 8.19209069e-02
      4.80225980e-02 7.76836127e-02 4.23728824e-02 5.64971752e-02
      5.50847463e-02 6.77966103e-02 1.07344635e-01 5.79096042e-02
      5.22598885e-02 3.81355919e-02 6.35593235e-02</_>
    <_>
      1.01265825e-01 4.30379733e-02 9.11392421e-02 3.29113938e-02
      1.41772151e-01 6.83544278e-02 6.83544278e-02 1.13924049e-01
      7.59493709e-02 3.79746854e-02 5.06329127e-02 4.55696210e-02
      3.54430377e-02 2.53164563e-02 6.83544278e-02</_>
    <_>
      1.42247509e-03 1.36557609e-01 8.67709816e-02 9.81507823e-02
      1.05263159e-01 5.97439557e-02 7.82361329e-02 1.56472251e-02
      4.69416790e-02 2.84495018e-02 9.38833579e-02 2.41820775e-02
      5.54765277e-02 3.98293026e-02 1.29445240e-01</_>
    <_>
      2.51162797e-02 1.06976748e-01 8.46511647e-02 7.81395361e-02
      1.04186051e-01 8.37209299e-02 5.11627905e-02 3.90697680e-02
      3.99999991e-02 6.88372105e-02 7.06976727e-02 3.44186053e-02
      4.93023284e-02 4.46511656e-02 1.19069770e-01</_>
    <_>
      3.32031250e-02 8.78906250e-02 8.88671875e-02 7.61718750e-02
      6.64062500e-02 5.85937500e-02 6.34765625e-02 5.37109375e-02
      5.66406250e-02 5.95703125e-02 8.98437500e-02 4.78515625e-02
      7.12890625e-02 5.37109375e-02 9.27734375e-02</_>
    <_>
      7.46268705e-02 7.06467703e-02 8.95522460e-02 5.87064698e-02
      8.35820958e-02 6.66666701e-02 6.66666701e-02 6.86567202e-02
      4.37810980e-02 6.66666701e-02 5.97014949e-02 4.97512445e-02
      6.96517453e-02 5.27363196e-02 7.86069706e-02</_>
    <_>
      9.63364989e-02 4.74898256e-02 6.78426027e-02 4.20624167e-02
      7.46268705e-02 7.05563128e-02 7.19131604e-02 5.97014949e-02
      6.10583462e-02 5.83446398e-02 4.47761193e-02 8.00542757e-02
      1.04477614e-01 5.69877885e-02 6.37720525e-02</_>
    <_>
      6.23742417e-02 7.84708187e-02 1.00603618e-01 7.04225302e-02
      7.04225302e-02 3.82293761e-02 7.84708187e-02 3.42052318e-02
      6.84104636e-02 4.02414463e-02 9.25553292e-02 4.02414463e-02
      6.23742417e-02 7.04225302e-02 9.25553292e-02</_>
    <_>
      3.16804424e-02 1.12947658e-01 8.67768601e-02 7.02479333e-02
      8.95316824e-02 6.88705221e-02 6.19834736e-02 6.74931109e-02
      6.06060624e-02 6.74931109e-02 8.12672153e-02 3.85674946e-02
      3.03030312e-02 2.20385678e-02 1.10192835e-01</_>
    <_>
      3.06406673e-02 1.39275759e-01 7.52089098e-02 1.30919218e-01
      2.50696372e-02 6.12813346e-02 3.34261842e-02 6.12813346e-02
      3.34261842e-02 6.68523684e-02 1.42061278e-01 4.17827293e-02
      1.94986071e-02 8.35654605e-03 1.30919218e-01</_>
    <_>
      6.66666701e-02 6.16666675e-02 6.66666701e-02 5.33333346e-02
      7.00000003e-02 4.83333357e-02 8.66666660e-02 1.08333334e-01
      6.83333352e-02 5.49999997e-02 5.00000007e-02 6.00000024e-02
      7.33333379e-02 8.16666707e-02 5.00000007e-02</_>
    <_>
      8.46153870e-02 1.53846160e-01 4.61538471e-02 3.84615399e-02
      3.07692308e-02 2.30769236e-02 9.23076943e-02 1.53846160e-01
      1.07692309e-01 0. 5.38461544e-02 9.23076943e-02 4.61538471e-02
      7.69230770e-03 6.92307726e-02</_>
    <_>
      3.69799696e-02 6.93374425e-02 6.62557781e-02 6.31741136e-02
      4.16024663e-02 9.09090936e-02 5.54699562e-02 5.08474596e-02
      6.47149459e-02 9.55315903e-02 8.01232681e-02 6.00924529e-02
      8.16641003e-02 8.16641003e-02 6.16332851e-02</_>
    <_>
      1.81086510e-02 1.09657943e-01 9.65794772e-02 7.64587522e-02
      9.95975807e-02 4.82897386e-02 7.44466782e-02 3.92354093e-02
      5.83500974e-02 4.82897386e-02 9.25553292e-02 4.32595573e-02
      5.83500974e-02 3.82293761e-02 9.85915437e-02</_>
    <_>
      3.91363017e-02 9.51416939e-02 9.98650417e-02 5.93792163e-02
      8.60323831e-02 6.98380545e-02 1.12010792e-01 2.96896081e-02
      4.14979756e-02 7.15249628e-02 8.87314379e-02 3.34008075e-02
      3.10391355e-02 3.64372469e-02 1.06275298e-01</_>
    <_>
      5.20532131e-02 1.14517063e-01 8.73337239e-02 7.51879737e-02
      7.51879737e-02 4.97397333e-02 9.08039361e-02 4.16425690e-02
      5.78369014e-02 6.70908093e-02 8.32851380e-02 5.49450554e-02
      2.66049746e-02 3.06535587e-02 9.31174085e-02</_>
    <_>
      8.88697207e-02 1.24245040e-01 7.42019042e-02 7.42019042e-02
      3.71009521e-02 6.03968948e-02 5.95340841e-02 6.98878393e-02
      6.21225201e-02 5.60828336e-02 6.81622103e-02 6.21225201e-02
      3.36496979e-02 5.17687686e-02 7.76531547e-02</_>
    <_>
      6.75172806e-02 6.11376911e-02 8.29346105e-02 7.76182860e-02
      6.96438029e-02 4.30621989e-02 6.96438029e-02 9.83519405e-02
      9.09090862e-02 3.61509845e-02 5.74162677e-02 7.38968626e-02
      6.11376911e-02 5.90111651e-02 5.15683144e-02</_>
    <_>
      5.81859685e-02 1.18083291e-01 9.01312083e-02 8.55676010e-02
      6.27495721e-02 2.85225343e-02 8.15744475e-02 6.33200258e-02
      6.78836331e-02 3.30861397e-02 7.52994865e-02 8.21449012e-02
      3.70792933e-02 3.08043361e-02 8.55676010e-02</_>
    <_>
      3.40623893e-02 1.43420577e-01 9.14306194e-02 1.12585157e-01
      7.52958059e-02 4.12334166e-02 1.07565433e-01 3.51380408e-02
      4.41018268e-02 3.76479030e-02 9.96773019e-02 2.97597703e-02
      2.29472928e-02 1.86446756e-02 1.06489778e-01</_>
    <_>
      7.86713287e-02 1.19755246e-01 9.26573426e-02 7.25524500e-02
      8.12937021e-02 3.75874117e-02 7.25524500e-02 7.69230723e-02
      6.38111904e-02 3.84615362e-02 6.20629378e-02 7.51748234e-02
      3.32167819e-02 2.44755242e-02 7.08041936e-02</_>
    <_>
      9.60548893e-02 5.14579751e-03 1.18353345e-01 1.20068612e-02
      9.43396240e-02 2.91595198e-02 1.01200692e-01 1.56089202e-01
      5.66037744e-02 2.91595198e-02 3.94511148e-02 2.74442546e-02
      1.18353345e-01 1.02915958e-01 1.37221273e-02</_>
    <_>
      5.02336435e-02 1.03387848e-01 1.08644858e-01 7.94392526e-02
      1.05140187e-01 3.44626158e-02 8.52803737e-02 3.85514013e-02
      5.54906540e-02 3.85514013e-02 8.23598132e-02 5.08177541e-02
      3.91355120e-02 2.80373823e-02 1.00467287e-01</_>
    <_>
      1.18721455e-01 1.17579907e-01 7.64840171e-02 4.10958901e-02
      5.02283089e-02 4.33789939e-02 6.84931502e-02 6.39269352e-02
      4.10958901e-02 6.62100464e-02 7.64840171e-02 5.93607277e-02
      4.22374420e-02 5.59360720e-02 7.87671208e-02</_>
    <_>
      1.15523472e-01 6.13718443e-02 5.92057779e-02 3.89891714e-02
      4.76534292e-02 4.83754538e-02 3.53790633e-02 1.36462092e-01
      6.35379106e-02 6.06498197e-02 3.82671505e-02 5.27075827e-02
      8.15884471e-02 9.74729285e-02 6.28158897e-02</_>
    <_>
      1.87429171e-02 1.26492888e-01 9.07505825e-02 9.00531784e-02
      7.89817795e-02 4.62906435e-02 8.68276507e-02 3.42603065e-02
      5.66646308e-02 4.28035893e-02 9.20582339e-02 4.66393493e-02
      4.68137041e-02 3.89678292e-02 1.03652686e-01</_>
    <_>
      4.41988930e-02 1.63378060e-01 8.99763182e-02 1.04183108e-01
      7.10339397e-02 4.73559573e-02 8.44514593e-02 3.07813734e-02
      3.94632965e-02 4.57774252e-02 9.47119147e-02 3.39384377e-02
      1.73638519e-02 2.13101804e-02 1.12075768e-01</_>
    <_>
      4.18875962e-02 1.19300112e-01 8.74867514e-02 7.79427364e-02
      8.53658617e-02 2.54506916e-02 7.21102878e-02 4.71898206e-02
      8.21845233e-02 3.18133645e-02 6.83987290e-02 7.74125159e-02
      4.66596000e-02 4.18875962e-02 9.49098691e-02</_>
    <_>
      1.04595885e-01 4.27892245e-02 9.66719538e-02 3.48652937e-02
      7.29001611e-02 6.65610135e-02 1.17274173e-01 8.39936659e-02
      4.59587984e-02 4.59587984e-02 4.27892245e-02 6.49762303e-02
      5.22979423e-02 6.65610135e-02 6.18066564e-02</_>
    <_>
      7.08955228e-02 1.07276119e-01 6.76305965e-02 5.50373122e-02
      6.11007437e-02 5.31716421e-02 6.29664138e-02 7.50932842e-02
      5.87686561e-02 4.19776104e-02 6.11007437e-02 5.87686561e-02
      7.04291016e-02 6.20335825e-02 9.37500000e-02</_>
    <_>
      1.39737986e-02 7.54002929e-02 9.08296928e-02 4.68704514e-02
      5.50218336e-02 1.38573512e-01 8.26783106e-02 3.11499275e-02
      3.49344984e-02 1.37991264e-01 8.03493410e-02 2.29985435e-02
      4.42503653e-02 5.73507994e-02 8.76273662e-02</_>
    <_>
      3.02491095e-02 9.07473266e-02 7.11743757e-02 6.85053393e-02
      6.76156580e-02 5.33807836e-02 6.49466217e-02 5.60498200e-02
      6.93950206e-02 4.89323847e-02 6.22775778e-02 7.11743757e-02
      7.91814923e-02 8.09608549e-02 8.54092538e-02</_>
    <_>
      4.13870253e-02 9.39597264e-02 1.00298285e-01 8.16554800e-02
      1.22669645e-01 2.46085003e-02 9.65697244e-02 4.77255769e-02
      6.00298271e-02 3.24384794e-02 6.74869493e-02 4.69798632e-02
      4.92170006e-02 3.61670405e-02 9.88068581e-02</_>
    <_>
      1.07279688e-01 4.40613031e-02 7.85440579e-02 2.29885057e-02
      9.38697308e-02 2.29885057e-02 1.07279688e-01 1.03448272e-01
      4.98084277e-02 3.63984667e-02 4.02298830e-02 5.93869723e-02
      1.05363980e-01 8.81226063e-02 4.02298830e-02</_>
    <_>
      7.45098069e-02 8.75817016e-02 7.18954280e-02 4.05228771e-02
      7.18954280e-02 4.96732034e-02 1.08496733e-01 7.84313753e-02
      6.14379086e-02 4.70588244e-02 6.79738596e-02 3.13725509e-02
      6.27451017e-02 6.40522912e-02 8.23529437e-02</_>
    <_>
      4.19745781e-02 8.89742821e-02 8.63139182e-02 7.83328414e-02
      9.96157229e-02 3.10375392e-02 9.16346386e-02 6.56222254e-02
      7.12385401e-02 2.95595620e-02 6.62134141e-02 6.56222254e-02
      5.61631657e-02 4.72952984e-02 8.04020092e-02</_>
    <_>
      5.44041432e-02 7.94473216e-02 6.99481890e-02 6.56303987e-02
      5.44041432e-02 5.69948182e-02 7.94473216e-02 5.52677028e-02
      6.13126084e-02 4.74956818e-02 6.30397201e-02 6.21761642e-02
      8.98100138e-02 9.32642519e-02 6.73575103e-02</_>
    <_>
      7.70925060e-02 5.06607890e-02 4.18502167e-02 3.96475755e-02
      9.03083682e-02 3.08370031e-02 4.62555066e-02 9.69162956e-02
      5.94713613e-02 3.96475755e-02 2.20264308e-02 9.03083682e-02
      1.47577092e-01 1.05726868e-01 6.16740063e-02</_>
    <_>
      9.23482925e-02 6.86015859e-02 8.97097662e-02 1.66226923e-01
      4.48548831e-02 2.63852254e-02 8.44327211e-02 2.37467028e-02
      2.11081803e-02 7.91556761e-02 1.63588405e-01 5.27704507e-02
      2.90237479e-02 1.58311352e-02 4.22163606e-02</_>
    <_>
      1.06382973e-01 1.14361696e-01 8.51063803e-02 8.51063803e-02
      5.05319126e-02 6.11702092e-02 7.44680837e-02 5.85106350e-02
      1.86170209e-02 7.97872320e-02 9.84042510e-02 3.45744677e-02
      1.86170209e-02 2.39361692e-02 9.04255286e-02</_>
    <_>
      7.65550211e-02 3.73205721e-01 6.69856444e-02 5.74162677e-02
      3.82775106e-02 2.87081338e-02 3.34928222e-02 5.26315756e-02
      3.82775106e-02 2.39234436e-02 2.39234436e-02 4.30621989e-02
      4.78468882e-03 2.39234436e-02 1.14832535e-01</_>
    <_>
      2.84263968e-01 4.06091362e-02 7.10659921e-02 3.04568522e-02
      2.03045681e-02 3.04568522e-02 6.59898445e-02 9.13705528e-02
      1.52284261e-02 7.10659921e-02 4.06091362e-02 9.13705528e-02
      4.56852764e-02 6.09137043e-02 4.06091362e-02</_>
    <_>
      1.34556577e-01 0. 3.97553518e-02 3.05810408e-03 6.72782883e-02
      9.48012248e-02 3.66972499e-02 1.25382274e-01 1.00917436e-01
      4.28134575e-02 6.11620815e-03 3.66972499e-02 1.00917436e-01
      2.11009175e-01 0.</_>
    <_>
      8.79689530e-02 1.16429493e-01 7.37386793e-02 1.09961189e-01
      8.40879679e-02 3.88098322e-02 1.07373871e-01 5.82147464e-02
      3.62225100e-02 2.84605436e-02 8.66752937e-02 3.36351879e-02
      2.58732215e-02 2.32858993e-02 8.92626122e-02</_>
    <_>
      1.55844152e-01 1.29870130e-02 5.19480519e-02 5.19480519e-02
      2.59740259e-02 1.68831170e-01 5.19480519e-02 1.68831170e-01 0.
      6.49350658e-02 1.29870130e-02 3.89610380e-02 3.89610380e-02
      1.29870132e-01 2.59740259e-02</_>
    <_>
      1.42076492e-01 3.82513665e-02 8.19672123e-02 6.01092875e-02
      8.19672123e-02 7.65027329e-02 6.55737668e-02 1.25683054e-01
      7.10382462e-02 3.82513665e-02 5.46448082e-02 6.55737668e-02
      2.18579229e-02 4.37158458e-02 3.27868834e-02</_>
    <_>
      4.65116277e-02 6.97674453e-02 3.60465109e-01 0. 0. 0.
      3.72093022e-01 1.16279069e-02 0. 0. 0. 0. 8.13953504e-02 0.
      5.81395328e-02</_>
    <_>
      7.14285746e-02 1.14285715e-01 1.14285715e-01 7.14285746e-02
      1.14285715e-01 3.57142873e-02 1.14285715e-01 5.71428575e-02
      1.42857144e-02 2.14285720e-02 7.14285746e-02 2.14285720e-02
      4.28571440e-02 5.00000007e-02 8.57142881e-02</_>
    <_>
      2.46913582e-02 8.23045298e-02 7.81892985e-02 6.44718781e-02
      6.03566542e-02 6.31001368e-02 7.95610398e-02 4.52674888e-02
      5.07544577e-02 6.31001368e-02 9.32784602e-02 6.17283955e-02
      6.72153607e-02 5.89849092e-02 1.06995888e-01</_>
    <_>
      2.41975322e-01 4.44444455e-02 4.93827164e-02 3.70370373e-02
      2.96296310e-02 7.90123492e-02 6.41975328e-02 1.85185194e-01
      1.97530873e-02 5.67901246e-02 1.72839519e-02 1.72839519e-02
      5.43209910e-02 6.66666701e-02 3.70370373e-02</_>
    <_>
      5.60975596e-02 2.92682927e-02 5.85365854e-02 1.95121951e-02
      4.14634161e-02 2.34146342e-01 7.56097585e-02 5.85365854e-02
      1.70731712e-02 1.19512193e-01 4.87804860e-02 1.46341464e-02
      5.12195118e-02 1.09756097e-01 6.58536553e-02</_>
    <_>
      5.89970499e-03 9.14454311e-02 8.25958699e-02 5.89970499e-02
      3.83480825e-02 1.41592920e-01 6.19469024e-02 6.48967549e-02
      4.42477874e-02 9.43952799e-02 1.06194690e-01 3.24483775e-02
      6.78466111e-02 3.24483775e-02 7.66961649e-02</_>
    <_>
      1.96078438e-02 7.84313753e-02 5.88235334e-02 1.37254909e-01
      5.88235334e-02 1.96078438e-02 1.96078438e-02 0. 2.15686277e-01 0.
      0. 9.80392173e-02 1.96078435e-01 0. 9.80392173e-02</_>
    <_>
      2.18181819e-01 3.63636352e-02 1.27272725e-01 1.81818176e-02
      1.81818176e-02 5.45454547e-02 2.18181819e-01 1.45454541e-01
      3.63636352e-02 3.63636352e-02 3.63636352e-02 1.81818176e-02 0.
      1.81818176e-02 1.81818176e-02</_>
    <_>
      1.55502394e-01 5.50239198e-02 5.02392314e-02 3.34928222e-02
      4.30621989e-02 3.11004780e-02 4.54545431e-02 1.31578937e-01
      6.45933002e-02 4.30621989e-02 4.78468873e-02 5.02392314e-02
      1.02870807e-01 9.09090862e-02 5.50239198e-02</_>
    <_>
      4.57516350e-02 1.07189544e-01 5.75163402e-02 7.18954280e-02
      6.66666701e-02 1.07189544e-01 3.52941193e-02 7.84313753e-02
      8.10457543e-02 8.23529437e-02 5.49019612e-02 9.01960805e-02
      2.87581701e-02 3.00653595e-02 6.27451017e-02</_>
    <_>
      7.37386793e-02 5.04527837e-02 4.01034951e-02 3.88098322e-02
      4.39844765e-02 1.73350587e-01 6.08020723e-02 6.33893907e-02
      3.10478657e-02 1.43596381e-01 4.65717986e-02 2.58732215e-02
      7.11513609e-02 7.37386793e-02 6.33893907e-02</_>
    <_>
      3.22580636e-02 1.09677419e-01 3.65591422e-02 8.81720483e-02
      2.79569905e-02 6.45161271e-02 2.15053763e-02 6.45161271e-02
      5.37634417e-02 1.37634411e-01 7.31182843e-02 5.16129062e-02
      4.73118275e-02 1.24731183e-01 6.66666701e-02</_>
    <_>
      4.14993316e-02 1.31191432e-01 3.61445770e-02 7.63052180e-02
      7.22891539e-02 8.70147273e-02 3.07898261e-02 6.69344068e-02
      1.74029451e-02 8.56760368e-02 8.83534104e-02 2.54350733e-02
      7.63052180e-02 7.76439086e-02 8.70147273e-02</_>
    <_>
      4.90463227e-02 4.35967296e-02 1.08991824e-02 1.36239780e-02
      8.17438681e-03 4.55040872e-01 1.63487736e-02 5.44959120e-02
      2.17983648e-02 1.52588546e-01 1.90735683e-02 2.72479560e-02
      3.54223438e-02 1.90735683e-02 7.35694841e-02</_>
    <_>
      4.94880527e-02 1.10921495e-01 4.60750833e-02 7.67918080e-02
      2.90102381e-02 1.16040953e-01 4.26621139e-02 4.77815680e-02
      7.50853196e-02 7.16723502e-02 5.46075068e-02 3.41296904e-02
      6.65528998e-02 9.21501666e-02 8.70307162e-02</_>
    <_>
      8.07453394e-02 6.41821921e-02 4.96894419e-02 4.76190485e-02
      4.55486551e-02 1.59420297e-01 2.69151144e-02 7.24637657e-02
      4.96894419e-02 9.31677073e-02 5.38302287e-02 8.07453394e-02
      5.59006222e-02 5.79710156e-02 6.21118024e-02</_>
    <_>
      2.97176819e-02 9.65824649e-02 5.20059429e-02 1.11441307e-01
      5.20059429e-02 1.27786025e-01 5.49777113e-02 4.45765220e-02
      3.41753326e-02 1.06983654e-01 9.21248123e-02 2.67459136e-02
      3.56612168e-02 6.38930127e-02 7.13224337e-02</_>
    <_>
      3.70370373e-02 9.69498903e-02 5.33769056e-02 1.35076255e-01
      5.55555560e-02 5.11982553e-02 4.46623079e-02 5.01089320e-02
      6.10021763e-02 9.58605632e-02 1.15468405e-01 4.24836576e-02
      5.77342026e-02 5.55555560e-02 4.79302816e-02</_>
    <_>
      3.78440358e-02 1.38761461e-01 3.78440358e-02 1.11238524e-01
      5.04587144e-02 7.56880715e-02 2.52293572e-02 3.66972461e-02
      4.24311906e-02 1.23853207e-01 9.40366909e-02 2.98165120e-02
      4.35779803e-02 3.89908254e-02 1.13532104e-01</_>
    <_>
      5.11627905e-02 5.46511635e-02 3.48837227e-02 4.53488380e-02
      2.09302325e-02 1.56976745e-01 3.25581394e-02 5.00000007e-02
      3.95348817e-02 1.45348832e-01 3.83720919e-02 3.95348817e-02
      3.48837227e-02 2.04651162e-01 5.11627905e-02</_>
    <_>
      8.12324956e-02 3.08123250e-02 7.28291348e-02 2.52100844e-02
      5.88235296e-02 1.65266111e-01 9.80392173e-02 1.31652668e-01
      3.64145674e-02 7.84313753e-02 1.40056023e-02 2.24089641e-02
      8.40336159e-02 5.32212891e-02 4.76190485e-02</_></support_vectors>
  <decision_functions>
    <_>
      <sv_count>39</sv_count>
      <rho>-1.5541615046213111e+00</rho>
      <alpha>
        3.1250000000000000e+02 3.1250000000000000e+02
        3.1250000000000000e+02 2.3020277943509427e+01
        3.1250000000000000e+02 3.1250000000000000e+02
        3.1250000000000000e+02 3.1250000000000000e+02
        3.1250000000000000e+02 1.2004970363407537e+01
        3.1250000000000000e+02 2.3372055725490483e+02
        3.1250000000000000e+02 3.1250000000000000e+02
        3.1250000000000000e+02 3.1250000000000000e+02
        3.1250000000000000e+02 3.1250000000000000e+02
        3.1250000000000000e+02 -1.1989273818489669e+02
        -3.1250000000000000e+02 -3.1250000000000000e+02
        -3.1250000000000000e+02 -2.6425958417223043e+00
        -3.1250000000000000e+02 -1.4696197052216604e+02
        -3.1250000000000000e+02 -1.4209654468304674e+02
        -3.1250000000000000e+02 -3.1250000000000000e+02
        -2.7808665530749226e+02 -3.1250000000000000e+02
        -3.1250000000000000e+02 -3.1250000000000000e+02
        -3.1250000000000000e+02 -2.0406530102249769e+02
        -3.1250000000000000e+02 -3.1250000000000000e+02
        -3.1250000000000000e+02</alpha>
      <index>
        0 1 2 4 5 6 8 9 10 12 13 14 15 16 18 19 21 22 24 26 27 28 29 30
        31 32 33 34 35 36 37 38 40 41 42 43 45 46 47</index></_>
    <_>
      <sv_count>26</sv_count>
      <rho>2.3079002713645586e+01</rho>
      <alpha>
        1.4023716990635060e+02 3.1250000000000000e+02
        1.3721601581699076e+02 3.1250000000000000e+02
        3.1250000000000000e+02 2.1749858600390800e+02
        3.1250000000000000e+02 1.9848943819731082e+02
        2.3828719647388357e+02 3.1250000000000000e+02
        1.3427127602710419e+02 3.1250000000000000e+02
        1.2198642651520157e+02 -3.1250000000000000e+02
        -2.1319466548829703e+02 -3.1250000000000000e+02
        -8.1024201416763248e+01 -7.3211255775756356e+00
        -1.6654392231181515e+02 -3.1250000000000000e+02
        -3.1250000000000000e+02 -3.1250000000000000e+02
        -3.1250000000000000e+02 -1.7226080064504833e+02
        -3.1250000000000000e+02 -2.3514139350125004e+02</alpha>
      <index>
        0 4 7 8 9 10 11 12 13 17 20 21 22 48 49 50 51 52 53 54 56 58 59
        61 62 63</index></_>
    <_>
      <sv_count>16</sv_count>
      <rho>4.2352001207838690e+00</rho>
      <alpha>
        3.1250000000000000e+02 4.4448514398883532e+01
        3.1250000000000000e+02 7.4378036687441195e+01
        1.0568797954583214e+02 3.0809368992597047e+02
        3.1250000000000000e+02 -3.1250000000000000e+02
        -3.1250000000000000e+02 -7.7032662890194047e+01
        -7.5696156503033185e-01 -1.8652124457081729e+02
        -9.1973763315317001e+01 -3.1250000000000000e+02
        -9.0711646823127722e+01 -8.5611941393640990e+01</alpha>
      <index>
        3 4 7 9 10 11 23 65 66 69 71 72 73 74 75 77</index></_>
    <_>
      <sv_count>26</sv_count>
      <rho>2.4511638715520430e+01</rho>
      <alpha>
        4.2569665475803831e+01 3.1250000000000000e+02
        3.1250000000000000e+02 1.1518086799042086e+02
        3.1250000000000000e+02 3.1250000000000000e+02
        2.3324872264071968e+02 3.1250000000000000e+02
        3.1250000000000000e+02 6.4606201085617755e+01
        1.9510637633703288e+02 1.2922551121236745e+02
        2.7386599644641018e+02 -3.1250000000000000e+02
        -1.0280143195221167e+02 -3.1250000000000000e+02
        -1.6671295028677289e+02 -2.8867556885887353e+02
        -3.1250000000000000e+02 -3.1114846919744218e+02
        -8.6943658075612788e+01 -3.1250000000000000e+02
        -3.1250000000000000e+02 -3.1250000000000000e+02
        -4.0191704005965583e+01 -5.7329558811493946e+01</alpha>
      <index>
        25 27 30 31 32 34 35 37 39 40 41 44 47 48 49 50 51 53 54 56 57
        58 59 62 63 64</index></_>
    <_>
      <sv_count>12</sv_count>
      <rho>2.3011028235276898e+00</rho>
      <alpha>
        3.1250000000000000e+02 2.9484947051939497e+02
        3.1250000000000000e+02 2.7674159855483703e+02
        3.2554861415262799e+01 -3.1250000000000000e+02
        -3.1250000000000000e+02 -2.5122859127776930e+01
        -1.5397937461309490e+02 -2.5034046315247531e+02
        -7.6813450867650630e+00 -1.6702188850938242e+02</alpha>
      <index>
        27 28 35 41 47 65 66 68 71 74 75 77</index></_>
    <_>
      <sv_count>21</sv_count>
      <rho>-1.6968717312295588e+01</rho>
      <alpha>
        2.2029823879527498e+02 3.2499687635462877e+01
        2.2013936972715010e+02 7.3988076701079223e+01
        8.5651665305343258e+01 1.9717234034147032e+02
        3.1709190155113660e+01 9.3044358916841048e+01
        3.1250000000000000e+02 3.1250000000000000e+02
        1.1852107380698806e+02 -3.1250000000000000e+02
        -4.1706054055255592e+01 -1.5112295506352629e+02
        -3.9950846950414953e+00 -3.1250000000000000e+02
        -3.1250000000000000e+02 -1.4112974288268887e+02
        -7.7703160446118062e+01 -3.2367004242093287e+01
        -3.1250000000000000e+02</alpha>
      <index>
        48 49 50 51 53 55 59 60 61 62 63 65 67 69 70 71 72 73 74 76 77</index></_></decision_functions></my_svm>
</opencv_storage>
